digraph Tree {
node [shape=box, style="filled, rounded", color="black", fontname="helvetica"] ;
edge [fontname="helvetica"] ;
0 [label="petal length (cm) <= 2.45\ngini = 0.67\nsamples = 103\nvalue = [48, 49, 53]\nclass = virginica", fillcolor="#faf7fe"] ;
1 [label="gini = 0.0\nsamples = 35\nvalue = [48, 0, 0]\nclass = setosa", fillcolor="#e58139"] ;
0 -> 1 [labeldistance=2.5, labelangle=45, headlabel="True"] ;
2 [label="petal length (cm) <= 4.75\ngini = 0.5\nsamples = 68\nvalue = [0, 49, 53]\nclass = virginica", fillcolor="#f5f0fd"] ;
0 -> 2 [labeldistance=2.5, labelangle=-45, headlabel="False"] ;
3 [label="sepal length (cm) <= 4.95\ngini = 0.12\nsamples = 29\nvalue = [0, 43, 3]\nclass = versicolor", fillcolor="#47e78a"] ;
2 -> 3 ;
4 [label="sepal width (cm) <= 2.45\ngini = 0.5\nsamples = 2\nvalue = [0, 3, 3]\nclass = versicolor", fillcolor="#ffffff"] ;
3 -> 4 ;
5 [label="gini = 0.0\nsamples = 1\nvalue = [0, 3, 0]\nclass = versicolor", fillcolor="#39e581"] ;
4 -> 5 ;
6 [label="gini = 0.0\nsamples = 1\nvalue = [0, 0, 3]\nclass = virginica", fillcolor="#8139e5"] ;
4 -> 6 ;
7 [label="gini = 0.0\nsamples = 27\nvalue = [0, 40, 0]\nclass = versicolor", fillcolor="#39e581"] ;
3 -> 7 ;
8 [label="petal width (cm) <= 1.75\ngini = 0.19\nsamples = 39\nvalue = [0, 6, 50]\nclass = virginica", fillcolor="#9051e8"] ;
2 -> 8 ;
9 [label="sepal length (cm) <= 6.5\ngini = 0.5\nsamples = 7\nvalue = [0, 6, 6]\nclass = versicolor", fillcolor="#ffffff"] ;
8 -> 9 ;
10 [label="sepal width (cm) <= 2.65\ngini = 0.38\nsamples = 4\nvalue = [0, 2, 6]\nclass = virginica", fillcolor="#ab7bee"] ;
9 -> 10 ;
11 [label="gini = 0.0\nsamples = 2\nvalue = [0, 0, 3]\nclass = virginica", fillcolor="#8139e5"] ;
10 -> 11 ;
12 [label="petal width (cm) <= 1.55\ngini = 0.48\nsamples = 2\nvalue = [0, 2, 3]\nclass = virginica", fillcolor="#d5bdf6"] ;
10 -> 12 ;
13 [label="gini = 0.0\nsamples = 1\nvalue = [0, 0, 3]\nclass = virginica", fillcolor="#8139e5"] ;
12 -> 13 ;
14 [label="gini = 0.0\nsamples = 1\nvalue = [0, 2, 0]\nclass = versicolor", fillcolor="#39e581"] ;
12 -> 14 ;
15 [label="gini = 0.0\nsamples = 3\nvalue = [0, 4, 0]\nclass = versicolor", fillcolor="#39e581"] ;
9 -> 15 ;
16 [label="gini = 0.0\nsamples = 32\nvalue = [0, 0, 44]\nclass = virginica", fillcolor="#8139e5"] ;
8 -> 16 ;
}